{"meta": "lr", "classes_": ["b", "c", "d", "e", "f", "h", "i", "k", "m", "o", "r", "s", "t", "u"], "coef_": [[-0.37721561278389937, 0.3772066129214159, -0.23147452645943198, -0.06674277687642757, -0.029696463459421403, 0.22154399132521008, 0.229873858103359, -0.0027979867215220753, -0.12071509577424952, -0.32236725341790756, 0.8034051478090741, -0.039256605465581504, -0.2559142955580673, -0.1858759932300012, -0.18878789767443208, 0.1887788978119488, -0.4251455552686571, 0.42513655540617384, -0.2505861674658725, 0.25057716760338905, -0.1776594488504043, 0.09871319352312113, -0.24881450644473632, 0.3277517619095361, -0.33492368164120995, 0.33491468177872646, 0.3426571130119343, -0.3426661128744174], [-0.14132248037953182, 0.14131521039832257, -0.20206627871308788, -0.2537615489814247, -0.14848787816462097, 0.9299380066688279, -0.1383970223745292, -0.034443697452290784, -0.15278885096408362, -0.3467139637081256, -0.10795573487355152, -0.032840457025101834, 0.4628451260824268, 0.0246577595431431, 0.15036547064375022, -0.15037274062495937, -0.23192290815067204, 0.23191563816946273, 0.5234265463200585, -0.5234338163012674, -0.015499059887004717, 0.5927170152809116, -0.37272770459392063, -0.2044975207811955, -0.49923475390273475, 0.49922748392152555, -0.1891424148000169, 0.18913514481880758], [0.25240963213082934, -0.25237828123920264, -0.3379523494349097, 0.9956454129310089, -0.22609595071879865, -0.31740822796094387, -0.22894156338102184, -0.1634062178436631, 0.2781902472999551, -0.0037396862528574623, -0.04697099601520178, -0.12952167504649215, 0.18221540333694805, -0.0019516951307697098, 0.08762925444417816, -0.08759790355255115, 0.11888526811211338, -0.11885391722048635, 0.16423736459939817, -0.1642060137077711, -0.05315458544664844, 0.23589890058703109, -0.05312275908918129, -0.12959020515957437, 0.3006493726732253, -0.3006180217815985, -0.41541077973467283, 0.41544213062629964], [0.020379497101738323, -0.020383010014158213, 0.1847842976299604, -0.21257964430110107, -0.17970909276980487, -0.17950520198329967, -0.13268741044606439, -0.0690001690380383, 0.588693707995928, -0.5518419080500507, -0.045129614156845375, 0.9517764445795833, -0.38931818672863877, 0.034509751443531626, 0.2236936330300182, -0.22369714594243803, 0.09849489497464496, -0.09849840788706492, 0.12477169954971241, -0.12477521246213227, -0.44926507498593216, -0.20072506498212836, 0.7476407819068512, -0.09765415485121062, 0.09133467896130736, -0.09133819187372728, -0.26439160079063084, 0.26438808787821105], [0.060483208105636004, -0.06049026302925963, 0.617158195029295, -0.16088672296254644, -0.04992950664006755, -0.24167982109865138, 0.20469658410454888, -0.005531646760303916, -0.36383413659589836, 0.8229813412649728, -0.22421527243083095, -0.023247769714505595, -0.3650985493087122, -0.21042680473454795, -0.2672105441825561, 0.2672034892589324, -0.09470608049468095, 0.09469902557105711, -0.27336259534814267, 0.27335554042451904, 0.137130463479283, 0.03641718206999648, 0.06516915403782875, -0.23872385451073191, -0.4246482901418443, 0.4246412352182206, 0.5815728329975098, -0.5815798879211334], [-0.009103128257420906, 0.009110242424625275, -0.22438625738792733, -0.18904054519648542, -0.14951660712082931, -0.21550600793821248, -0.1369812736010287, 0.6098893738827194, 0.30554843152896843, 0.28077777043674684, -0.022312183304494648, -0.14489548470148045, -0.1917880919254114, 0.0782251036618442, 0.4526925318289545, -0.4526854176617499, 0.4200599842026827, -0.4200528700354779, 0.3474734701117826, -0.34746635594457814, 0.08245637530911379, -0.19904555800210008, 0.15675798333740673, -0.04016168647721588, 0.4741139635573103, -0.4741068493901059, -0.17229332086389293, 0.17230043503109746], [-0.45825062459340654, 0.4582580764919947, -0.21196755276529078, 0.41282922593943816, 0.4456731594537127, -0.2641083806189255, -0.11331087616908227, -0.03816301889886225, -0.23094510504240232, 0.22067622579208837, -0.03712869007699487, -0.06067790638538397, -0.28613049509894106, 0.16326831766781943, 0.38583334070968306, -0.385825888811095, -0.08035553762711418, 0.08036298952570219, 0.4274121757706543, -0.4274047238720662, 0.20870961575784358, -0.2519203944419611, 0.09515657553706838, -0.05193834495436281, -0.4973146406187544, 0.4973220925173426, -0.21115722836960094, 0.2111646802681892], [-0.377078232129719, 0.377020249700391, -0.26316204004376115, -0.12012492817352452, -0.02294769917458533, -0.21311169794850734, 0.3492573481372544, -0.014986077338248008, 0.285017112112044, -0.22929943792197777, -0.0984694227635831, -0.08171450905550941, -0.1448120842209726, 0.5542374715327147, -0.38500977254186436, 0.3849517901125365, 0.3402783542250093, -0.34033633665433716, -0.41492265359043856, 0.41486467116111064, 0.12129325098970092, -0.2777254942012004, 0.23475577235923253, -0.0783815115770611, -0.37118658675126803, 0.37112860432193995, -0.3336011623236705, 0.3335431798943425], [0.5025392531018675, -0.5025266461809704, -0.2398713845365684, -0.17732363018277303, 0.6449050027533809, 0.1798248898415405, -0.09531818843950941, -0.12002466261118068, -0.19217941990399326, 0.3104320291432457, -0.014235262054431205, -0.052526805911361954, 0.037806517386311585, -0.28146387164286735, 0.4369754732666381, -0.43696286634574133, -0.4585214679106672, 0.45853407483156405, 0.39088869281831756, -0.3908760858974207, 0.2353632503154353, -0.14209306507167183, -0.0026698662326977694, -0.0905877120901688, 0.5208286207102398, -0.5208160137893431, -0.18345084808242706, 0.18346345500332392], [0.08054805081504222, -0.08054904913513981, 0.78891718355401, -0.1159662086658037, -0.08749727263207384, -0.1512802050911631, -0.19001584538858218, -0.01075344723290923, -0.2334052028635756, -0.07933359859740986, -0.08778194597918162, -0.1432746146299905, 0.4774474599856971, -0.16705829909921277, -0.33680654284597933, 0.33680554452588163, -0.3881690400495631, 0.38816804172946545, -0.37079302426936045, 0.37079202594926286, -0.43172092367842235, -0.25493754831615095, 0.03145800755497767, 0.6551994661194976, 0.1943764618934364, -0.19437746021353397, -0.4446874266744044, 0.44468642835430666], [-0.1930495441569309, 0.19304086452912836, 0.6572644218777809, -0.25759755148256513, -0.10192678342558907, -0.18964676176757386, 0.19342901003808943, -0.08154491673146866, -0.21998609813647602, 0.4266944410561247, -0.09936325248854101, -0.1174433805806581, -0.27173359690841165, 0.06183710929368363, 0.3426064686330665, -0.3426151482608691, 0.085451120646824, -0.08545980027462646, -0.6090264020019648, 0.6090177223741621, 0.533011853460495, 0.09516570729393793, -0.430084445887208, -0.19810179449502746, 0.30013480733319425, -0.30014348696099663, -0.40355524599768083, 0.4035465663698784], [0.06787171551920061, -0.06786918720606906, -0.1935394682266053, -0.12707922148495646, -0.027228775279054176, -0.18128862394840303, 0.6576471470688563, -0.014853611489124167, -0.11365491832758161, -0.3113454412333225, 0.3043493512580158, -0.04676685836467506, 0.2300122331991837, -0.17624675654607044, -0.2288074095872045, 0.22880993790033607, 0.025766546745174864, -0.025764018432043328, -0.25322982807320493, 0.2532323563863365, -0.23345802258312373, 0.5604132135228255, -0.2262678212272021, -0.10068484139936804, 0.5702907075199258, -0.5702881792067942, 0.42922009006988343, -0.4292175617567518], [0.4684341388533022, -0.468431101879415, 0.06346267673347938, -0.2217325996370483, -0.022990610711199625, 0.5242031540222432, -0.13974426285760927, -0.028642071399861833, -0.17455324917611645, -0.31441913030289137, -0.10119947458841581, -0.012270702592329305, 0.4630740648095904, -0.0351817203520671, -0.2831965588773389, 0.283199595851226, 0.46020452988064486, -0.4602014929067577, 0.2141331010111669, -0.21413006403727988, 0.015207198492786783, -0.371837529036666, -0.19972214928987772, 0.5563555168076438, -0.3699281841371617, 0.36993122111104904, 0.511850790429354, -0.5118477534554671], [0.1033541266732917, -0.10332371778166254, -0.4071669172569439, 0.49436073907420897, -0.04455152211104893, 0.09802488649785818, -0.4595075047946807, -0.0257418503652461, 0.34461257784748145, 0.09749861179136363, -0.22299265033501772, -0.06733967510651333, 0.051394494948996616, 0.14146962759279993, -0.3899774468469132, 0.3900078557385423, 0.12967989071426142, -0.12964948182263256, -0.020422379432107004, 0.02045278832373607, 0.027585107626877266, 0.078959441774055, 0.20247097803145866, -0.3089851185407618, 0.0455075245443336, -0.045477115652704334, 0.752389201128316, -0.7523587922366868]], "intercept_": [-0.16987636325397573, 0.0891586531054134, 0.49074233667398526, 0.4103613204553485, -0.11725814744570086, -0.14638315037240354, -0.16553333248898205, -0.5648779877527049, -0.1067678758249477, -0.12503799937209142, 0.07383786609522495, -0.1140358447578221, -0.05870376437597971, 0.5043742893146314], "n_iter_": [33], "params": {"C": 1.0, "class_weight": null, "dual": false, "fit_intercept": true, "intercept_scaling": 1, "l1_ratio": null, "max_iter": 100, "multi_class": "auto", "n_jobs": null, "penalty": "l2", "random_state": null, "solver": "lbfgs", "tol": 0.0001, "verbose": 0, "warm_start": false}}